SVM-light Version V6.20
0 # kernel type
3 # kernel parameter -d 
1 # kernel parameter -g 
1 # kernel parameter -s 
1 # kernel parameter -r 
empty# kernel parameter -u 
8 # highest feature index 
7 # number of training documents 
2 # number of support vectors plus 1 
0 # threshold b, each following line is a SV (starting with alpha*y)
1 1:0.00076099753 2:5.5138273e-05 3:-1.7527267e-05 4:5.3865256e-07 5:4.3601821e-07 6:0.013932749 7:0.00041968375 #
