SVM-light Version V6.20
0 # kernel type
3 # kernel parameter -d 
1 # kernel parameter -g 
1 # kernel parameter -s 
1 # kernel parameter -r 
empty# kernel parameter -u 
8 # highest feature index 
6 # number of training documents 
2 # number of support vectors plus 1 
0 # threshold b, each following line is a SV (starting with alpha*y)
1 1:0.00075762294 2:5.6703153e-05 3:-1.7582847e-06 4:5.4503789e-07 5:4.4111783e-07 6:0.014026128 7:0.00042505519 #
