SVM-light Version V6.20
0 # kernel type
3 # kernel parameter -d 
1 # kernel parameter -g 
1 # kernel parameter -s 
1 # kernel parameter -r 
empty# kernel parameter -u 
8 # highest feature index 
4 # number of training documents 
2 # number of support vectors plus 1 
0 # threshold b, each following line is a SV (starting with alpha*y)
1 1:0.00073492696 2:5.2934716e-05 3:-6.8714107e-05 4:5.1403111e-07 5:4.5957808e-07 6:0.013851147 7:0.00038141158 #
