SVM-light Version V6.20
0 # kernel type
3 # kernel parameter -d 
1 # kernel parameter -g 
1 # kernel parameter -s 
1 # kernel parameter -r 
empty# kernel parameter -u 
8 # highest feature index 
2 # number of training documents 
2 # number of support vectors plus 1 
0 # threshold b, each following line is a SV (starting with alpha*y)
1 1:-0.00051151658 2:6.4027154e-05 3:3.0934778e-05 4:7.2401628e-05 5:0.00098354078 6:0.00011259301 7:0.00023139353 #
