SVM-light Version V6.20
0 # kernel type
3 # kernel parameter -d 
1 # kernel parameter -g 
1 # kernel parameter -s 
1 # kernel parameter -r 
empty# kernel parameter -u 
8 # highest feature index 
3 # number of training documents 
2 # number of support vectors plus 1 
0 # threshold b, each following line is a SV (starting with alpha*y)
1 1:6.8499437e-05 2:0.00018751407 3:-0.00012069789 4:1.3549276e-06 5:8.2704966e-05 6:0.029085802 7:-0.00011748722 #
