SVM-light Version V6.20
0 # kernel type
3 # kernel parameter -d 
1 # kernel parameter -g 
1 # kernel parameter -s 
1 # kernel parameter -r 
empty# kernel parameter -u 
8 # highest feature index 
7 # number of training documents 
2 # number of support vectors plus 1 
0 # threshold b, each following line is a SV (starting with alpha*y)
1 1:6.0381768e-05 2:0.00018929286 3:-0.00013062007 4:1.2427237e-06 5:8.4773215e-05 6:0.031945381 7:-0.00012791125 #
