SVM-light Version V6.20
0 # kernel type
3 # kernel parameter -d 
1 # kernel parameter -g 
1 # kernel parameter -s 
1 # kernel parameter -r 
empty# kernel parameter -u 
8 # highest feature index 
9 # number of training documents 
2 # number of support vectors plus 1 
0 # threshold b, each following line is a SV (starting with alpha*y)
1 1:5.6510256e-05 2:0.00018039631 3:-0.00012551586 4:1.1695735e-06 5:8.0940299e-05 6:0.030748582 7:-0.00012299711 #
