SVM-light Version V6.20
0 # kernel type
3 # kernel parameter -d 
1 # kernel parameter -g 
1 # kernel parameter -s 
1 # kernel parameter -r 
empty# kernel parameter -u 
8 # highest feature index 
6 # number of training documents 
2 # number of support vectors plus 1 
0 # threshold b, each following line is a SV (starting with alpha*y)
1 1:7.7180528e-05 2:0.00017825913 3:-8.0456623e-05 4:1.1869819e-06 5:7.8210272e-05 6:0.029482435 7:-7.6460565e-05 #
