SVM-light Version V6.20
0 # kernel type
3 # kernel parameter -d 
1 # kernel parameter -g 
1 # kernel parameter -s 
1 # kernel parameter -r 
empty# kernel parameter -u 
8 # highest feature index 
8 # number of training documents 
2 # number of support vectors plus 1 
0 # threshold b, each following line is a SV (starting with alpha*y)
1 1:5.2756819e-05 2:0.00017334313 3:-0.0001221541 4:1.1018222e-06 5:7.8001736e-05 6:0.030001357 7:-0.00011982756 #
